<?xml version="1.0"?>
<opencv_storage>
<cascade>
  <stageType>BOOST</stageType>
  <featureType>HAAR</featureType>
  <height>20</height>
  <width>20</width>
  <stageParams>
    <boostType>GAB</boostType>
    <minHitRate>9.9500000476837158e-01</minHitRate>
    <maxFalseAlarm>4.0000000596046448e-01</maxFalseAlarm>
    <weightTrimRate>9.4999999999999996e-01</weightTrimRate>
    <maxDepth>1</maxDepth>
    <maxWeakCount>100</maxWeakCount></stageParams>
  <featureParams>
    <maxCatCount>0</maxCatCount>
    <featSize>1</featSize>
    <mode>ALL</mode></featureParams>
  <stageNum>20</stageNum>
  <stages>
    <!-- stage 0 -->
    <_>
      <maxWeakCount>4</maxWeakCount>
      <stageThreshold>-2.6983359456062317e-01</stageThreshold>
      <weakClassifiers>
        <_>
          <internalNodes>
            0 -1 22 3.8528952281922102e-03</internalNodes>
          <leafValues>
            -6.7729830741882324e-01 9.1152501106262207e-01</leafValues></_>
        <_>
          <internalNodes>
            0 -1 50 1.3192482292652130e-02</internalNodes>
          <leafValues>
            -4.8570209741592407e-01 8.2998979091644287e-01</leafValues></_>
        <_>
          <internalNodes>
            0 -1 56 6.2546157278120518e-04</internalNodes>
          <leafValues>
            4.7899904847145081e-01 -9.6611088514328003e-01</leafValues></_>
        <_>
          <internalNodes>
            0 -1 71 7.8146223677322268e-04</internalNodes>
          <leafValues>
            4.1416776180267334e-01 -9.2377668619155884e-01</leafValues></_></weakClassifiers></_>
    <!-- stage 1 -->
    <_>
      <maxWeakCount>3</maxWeakCount>
      <stageThreshold>-7.2290652990341187e-01</stageThreshold>
      <weakClassifiers>
        <_>
          <internalNodes>
            0 -1 133 2.5585270486772060e-03</internalNodes>
          <leafValues>
            -5.0936967134475708e-01 9.0384614467620850e-01</leafValues></_>
        <_>
          <internalNodes>
            0 -1 39 3.4235371276736259e-03</internalNodes>
          <leafValues>
            6.8044096231460571e-01 -8.8032305240631104e-01</leafValues></_>
        <_>
          <internalNodes>
            0 -1 42 -2.3969842004589736e-04</internalNodes>
          <leafValues>
            4.9965369701385498e-01 -8.9397782087326050e-01</leafValues></_></weakClassifiers></_>
    <!-- stage 2 -->
    <_>
      <maxWeakCount>5</maxWeakCount>
      <stageThreshold>-7.2957497835159302e-01</stageThreshold>
      <weakClassifiers>
        <_>
          <internalNodes>
            0 -1 113 -4.5540872961282730e-03</internalNodes>
          <leafValues>
            8.6881601810455322e-01 -7.9203540086746216e-01</leafValues></_>
        <_>
          <internalNodes>
            0 -1 124 -1.6568328646826558e-05</internalNodes>
          <leafValues>
            7.1782374382019043e-01 -8.2958298921585083e-01</leafValues></_>
        <_>
          <internalNodes>
            0 -1 40 -1.5176204964518547e-02</internalNodes>
          <leafValues>
            8.5480999946594238e-01 -4.8612454533576965e-01</leafValues></_>
        <_>
          <internalNodes>
            0 -1 25 3.6644298583269119e-02</internalNodes>
          <leafValues>
            -5.5470675230026245e-01 7.0229524374008179e-01</leafValues></_>
        <_>
          <internalNodes>
            0 -1 60 -5.2279377996455878e-05</internalNodes>
          <leafValues>
            4.1813334822654724e-01 -8.7153404951095581e-01</leafValues></_></weakClassifiers></_>
    <!-- stage 3 -->
    <_>
      <maxWeakCount>6</maxWeakCount>
      <stageThreshold>-5.9893155097961426e-01</stageThreshold>
      <weakClassifiers>
        <_>
          <internalNodes>
            0 -1 77 2.6131767663173378e-04</internalNodes>
          <leafValues>
            -8.5100287199020386e-01 7.8969508409500122e-01</leafValues></_>
        <_>
          <internalNodes>
            0 -1 82 3.0714498832821846e-02</internalNodes>
          <leafValues>
            -5.5115610361099243e-01 7.8440684080123901e-01</leafValues></_>
        <_>
          <internalNodes>
            0 -1 125 1.6861287804204039e-05</internalNodes>
          <leafValues>
            -7.7002453804016113e-01 5.2663111686706543e-01</leafValues></_>
        <_>
          <internalNodes>
            0 -1 62 -1.6763977328082547e-05</internalNodes>
          <leafValues>
            3.8445371389389038e-01 -8.4868794679641724e-01</leafValues></_>
        <_>
          <internalNodes>
            0 -1 3 1.4250609278678894e-01</internalNodes>
          <leafValues>
            -4.6547389030456543e-01 7.9318761825561523e-01</leafValues></_>
        <_>
          <internalNodes>
            0 -1 85 -1.9540106877684593e-03</internalNodes>
          <leafValues>
            -9.4883215427398682e-01 3.5761645436286926e-01</leafValues></_></weakClassifiers></_>
    <!-- stage 4 -->
    <_>
      <maxWeakCount>8</maxWeakCount>
      <stageThreshold>-9.2799425125122070e-01</stageThreshold>
      <weakClassifiers>
        <_>
          <internalNodes>
            0 -1 28 7.8801313065923750e-05</internalNodes>
          <leafValues>
            -7.3224043846130371e-01 7.8143239021301270e-01</leafValues></_>
        <_>
          <internalNodes>
            0 -1 66 1.6971174627542496e-02</internalNodes>
          <leafValues>
            -5.9790223836898804e-01 6.7280846834182739e-01</leafValues></_>
        <_>
          <internalNodes>
            0 -1 92 -1.7130283595179208e-05</internalNodes>
          <leafValues>
            4.8956874012947083e-01 -6.9445705413818359e-01</leafValues></_>
        <_>
          <internalNodes>
            0 -1 57 1.6816025890875608e-05</internalNodes>
          <leafValues>
            -6.8578195571899414e-01 4.3039283156394958e-01</leafValues></_>
        <_>
          <internalNodes>
            0 -1 13 2.0154508948326111e-01</internalNodes>
          <leafValues>
            -3.7595641613006592e-01 8.1604063510894775e-01</leafValues></_>
        <_>
          <internalNodes>
            0 -1 48 -1.7709880921756849e-05</internalNodes>
          <leafValues>
            4.1747403144836426e-01 -7.4255359172821045e-01</leafValues></_>
        <_>
          <internalNodes>
            0 -1 136 -1.7130283595179208e-05</internalNodes>
          <leafValues>
            2.3006835579872131e-01 -9.0210086107254028e-01</leafValues></_>
        <_>
          <internalNodes>
            0 -1 45 4.7639681724831462e-04</internalNodes>
          <leafValues>
            2.4009081721305847e-01 -9.3230056762695312e-01</leafValues></_></weakClassifiers></_>
    <!-- stage 5 -->
    <_>
      <maxWeakCount>7</maxWeakCount>
      <stageThreshold>-4.9285492300987244e-01</stageThreshold>
      <weakClassifiers>
        <_>
          <internalNodes>
            0 -1 86 -6.4191957935690880e-03</internalNodes>
          <leafValues>
            8.2448297739028931e-01 -5.8441555500030518e-01</leafValues></_>
        <_>
          <internalNodes>
            0 -1 40 -1.4799537137150764e-02</internalNodes>
          <leafValues>
            8.3192557096481323e-01 -2.9101255536079407e-01</leafValues></_>
        <_>
          <internalNodes>
            0 -1 134 6.0629373183473945e-04</internalNodes>
          <leafValues>
            4.0802872180938721e-01 -9.3584692478179932e-01</leafValues></_>
        <_>
          <internalNodes>
            0 -1 19 1.5484659001231194e-02</internalNodes>
          <leafValues>
            -4.4707027077674866e-01 7.3042023181915283e-01</leafValues></_>
        <_>
          <internalNodes>
            0 -1 90 1.9198729205527343e-05</internalNodes>
          <leafValues>
            -7.8861510753631592e-01 3.9900308847427368e-01</leafValues></_>
        <_>
          <internalNodes>
            0 -1 63 1.0999382473528385e-02</internalNodes>
          <leafValues>
            -3.6362981796264648e-01 8.0855017900466919e-01</leafValues></_>
        <_>
          <internalNodes>
            0 -1 89 -1.6816025890875608e-05</internalNodes>
          <leafValues>
            3.8624149560928345e-01 -6.9160854816436768e-01</leafValues></_></weakClassifiers></_>
    <!-- stage 6 -->
    <_>
      <maxWeakCount>7</maxWeakCount>
      <stageThreshold>-5.9202897548675537e-01</stageThreshold>
      <weakClassifiers>
        <_>
          <internalNodes>
            0 -1 54 7.2609320341143757e-05</internalNodes>
          <leafValues>
            -7.5404530763626099e-01 7.4047374725341797e-01</leafValues></_>
        <_>
          <internalNodes>
            0 -1 31 -1.6920179405133240e-05</internalNodes>
          <leafValues>
            5.4245531558990479e-01 -7.1294397115707397e-01</leafValues></_>
        <_>
          <internalNodes>
            0 -1 16 -3.4443486481904984e-02</internalNodes>
          <leafValues>
            9.3130189180374146e-01 -3.2262489199638367e-01</leafValues></_>
        <_>
          <internalNodes>
            0 -1 6 8.5246503353118896e-02</internalNodes>
          <leafValues>
            -3.9380824565887451e-01 7.4193447828292847e-01</leafValues></_>
        <_>
          <internalNodes>
            0 -1 126 1.1694801971316338e-02</internalNodes>
          <leafValues>
            -4.2385378479957581e-01 6.2094354629516602e-01</leafValues></_>
        <_>
          <internalNodes>
            0 -1 75 1.1400806251913309e-03</internalNodes>
          <leafValues>
            3.8137519359588623e-01 -7.6697653532028198e-01</leafValues></_>
        <_>
          <internalNodes>
            0 -1 141 3.8397458411054686e-05</internalNodes>
          <leafValues>
            -8.2805323600769043e-01 2.7289772033691406e-01</leafValues></_></weakClassifiers></_>
    <!-- stage 7 -->
    <_>
      <maxWeakCount>8</maxWeakCount>
      <stageThreshold>-5.4326838254928589e-01</stageThreshold>
      <weakClassifiers>
        <_>
          <internalNodes>
            0 -1 144 -9.5219991635531187e-05</internalNodes>
          <leafValues>
            7.3482918739318848e-01 -8.1379312276840210e-01</leafValues></_>
        <_>
          <internalNodes>
            0 -1 18 2.5806967169046402e-03</internalNodes>
          <leafValues>
            -5.4954409599304199e-01 6.3933169841766357e-01</leafValues></_>
        <_>
          <internalNodes>
            0 -1 53 5.8127986267209053e-04</internalNodes>
          <leafValues>
            3.7466576695442200e-01 -7.2776693105697632e-01</leafValues></_>
        <_>
          <internalNodes>
            0 -1 80 1.9090101122856140e-03</internalNodes>
          <leafValues>
            -6.4038103818893433e-01 4.2235639691352844e-01</leafValues></_>
        <_>
          <internalNodes>
            0 -1 100 6.1786209698766470e-04</internalNodes>
          <leafValues>
            3.0222028493881226e-01 -6.9981181621551514e-01</leafValues></_>
        <_>
          <internalNodes>
            0 -1 132 1.2579329311847687e-01</internalNodes>
          <leafValues>
            -3.4737682342529297e-01 7.5686937570571899e-01</leafValues></_>
        <_>
          <internalNodes>
            0 -1 74 8.1884546671062708e-04</internalNodes>
          <leafValues>
            2.5465852022171021e-01 -9.0232437849044800e-01</leafValues></_>
        <_>
          <internalNodes>
            0 -1 23 -1.2454498559236526e-02</internalNodes>
          <leafValues>
            9.1314297914505005e-01 -2.8866937756538391e-01</leafValues></_></weakClassifiers></_>
    <!-- stage 8 -->
    <_>
      <maxWeakCount>10</maxWeakCount>
      <stageThreshold>-1.0218887329101562e+00</stageThreshold>
      <weakClassifiers>
        <_>
          <internalNodes>
            0 -1 46 1.2331902689766139e-04</internalNodes>
          <leafValues>
            -5.9133124351501465e-01 7.2406637668609619e-01</leafValues></_>
        <_>
          <internalNodes>
            0 -1 36 1.1281313374638557e-02</internalNodes>
          <leafValues>
            -5.2492868900299072e-01 5.6152623891830444e-01</leafValues></_>
        <_>
          <internalNodes>
            0 -1 78 1.6816025890875608e-05</internalNodes>
          <leafValues>
            -7.1668928861618042e-01 3.5868993401527405e-01</leafValues></_>
        <_>
          <internalNodes>
            0 -1 114 -1.7660433513810858e-05</internalNodes>
          <leafValues>
            3.0154484510421753e-01 -7.4783223867416382e-01</leafValues></_>
        <_>
          <internalNodes>
            0 -1 55 -1.1301678605377674e-03</internalNodes>
          <leafValues>
            -9.0159893035888672e-01 2.2181020677089691e-01</leafValues></_>
        <_>
          <internalNodes>
            0 -1 1 8.4413063526153564e-01</internalNodes>
          <leafValues>
            -3.1817343831062317e-01 7.4672704935073853e-01</leafValues></_>
        <_>
          <internalNodes>
            0 -1 35 3.2491465099155903e-03</internalNodes>
          <leafValues>
            2.8064954280853271e-01 -8.7111145257949829e-01</leafValues></_>
        <_>
          <internalNodes>
            0 -1 27 -4.6980520710349083e-03</internalNodes>
          <leafValues>
            -8.4953278303146362e-01 1.4309698343276978e-01</leafValues></_>
        <_>
          <internalNodes>
            0 -1 148 -5.8339331299066544e-03</internalNodes>
          <leafValues>
            8.2698577642440796e-01 -2.6889711618423462e-01</leafValues></_>
        <_>
          <internalNodes>
            0 -1 68 1.9512703147483990e-05</internalNodes>
          <leafValues>
            -7.3867857456207275e-01 2.8691661357879639e-01</leafValues></_></weakClassifiers></_>
    <!-- stage 9 -->
    <_>
      <maxWeakCount>7</maxWeakCount>
      <stageThreshold>-4.4093497097492218e-02</stageThreshold>
      <weakClassifiers>
        <_>
          <internalNodes>
            0 -1 130 -1.6592341125942767e-05</internalNodes>
          <leafValues>
            7.4568963050842285e-01 -4.5316454768180847e-01</leafValues></_>
        <_>
          <internalNodes>
            0 -1 135 -1.6568328646826558e-05</internalNodes>
          <leafValues>
            4.3485105037689209e-01 -8.9872020483016968e-01</leafValues></_>
        <_>
          <internalNodes>
            0 -1 16 -3.8919921964406967e-02</internalNodes>
          <leafValues>
            8.6350792646408081e-01 -3.4425640106201172e-01</leafValues></_>
        <_>
          <internalNodes>
            0 -1 67 1.1274180142208934e-03</internalNodes>
          <leafValues>
            3.1751000881195068e-01 -7.7269089221954346e-01</leafValues></_>
        <_>
          <internalNodes>
            0 -1 14 8.2431453466415405e-01</internalNodes>
          <leafValues>
            -3.2610753178596497e-01 7.6235830783843994e-01</leafValues></_>
        <_>
          <internalNodes>
            0 -1 88 1.2957346625626087e-03</internalNodes>
          <leafValues>
            2.7078545093536377e-01 -8.4318387508392334e-01</leafValues></_>
        <_>
          <internalNodes>
            0 -1 101 8.0536189489066601e-04</internalNodes>
          <leafValues>
            2.1650895476341248e-01 -8.6929100751876831e-01</leafValues></_></weakClassifiers></_>
    <!-- stage 10 -->
    <_>
      <maxWeakCount>8</maxWeakCount>
      <stageThreshold>-5.3169792890548706e-01</stageThreshold>
      <weakClassifiers>
        <_>
          <internalNodes>
            0 -1 65 -1.7971602574107237e-05</internalNodes>
          <leafValues>
            6.8939769268035889e-01 -7.4380165338516235e-01</leafValues></_>
        <_>
          <internalNodes>
            0 -1 97 -1.2298101501073688e-04</internalNodes>
          <leafValues>
            6.0632741451263428e-01 -5.6304252147674561e-01</leafValues></_>
        <_>
          <internalNodes>
            0 -1 49 -3.1153755262494087e-03</internalNodes>
          <leafValues>
            6.8245470523834229e-01 -3.9883872866630554e-01</leafValues></_>
        <_>
          <internalNodes>
            0 -1 115 -1.6816025890875608e-05</internalNodes>
          <leafValues>
            2.4499052762985229e-01 -8.2374137639999390e-01</leafValues></_>
        <_>
          <internalNodes>
            0 -1 128 -4.7363704070448875e-03</internalNodes>
          <leafValues>
            -8.7604928016662598e-01 2.2342075407505035e-01</leafValues></_>
        <_>
          <internalNodes>
            0 -1 13 2.5088122487068176e-01</internalNodes>
          <leafValues>
            -3.3537977933883667e-01 6.2547093629837036e-01</leafValues></_>
        <_>
          <internalNodes>
            0 -1 10 -5.4004052653908730e-03</internalNodes>
          <leafValues>
            6.6970932483673096e-01 -2.9524847865104675e-01</leafValues></_>
        <_>
          <internalNodes>
            0 -1 123 4.4636570964939892e-04</internalNodes>
          <leafValues>
            2.5490853190422058e-01 -7.4347513914108276e-01</leafValues></_></weakClassifiers></_>
    <!-- stage 11 -->
    <_>
      <maxWeakCount>10</maxWeakCount>
      <stageThreshold>-4.1340050101280212e-01</stageThreshold>
      <weakClassifiers>
        <_>
          <internalNodes>
            0 -1 131 -4.2844144627451897e-03</internalNodes>
          <leafValues>
            7.3162937164306641e-01 -4.5308309793472290e-01</leafValues></_>
        <_>
          <internalNodes>
            0 -1 61 -4.3466575443744659e-03</internalNodes>
          <leafValues>
            7.4660271406173706e-01 -2.3225991427898407e-01</leafValues></_>
        <_>
          <internalNodes>
            0 -1 98 9.8210628493689001e-05</internalNodes>
          <leafValues>
            -7.7984207868576050e-01 3.1161430478096008e-01</leafValues></_>
        <_>
          <internalNodes>
            0 -1 102 3.0245503876358271e-04</internalNodes>
          <leafValues>
            2.3105743527412415e-01 -7.8241509199142456e-01</leafValues></_>
        <_>
          <internalNodes>
            0 -1 95 1.1114582885056734e-03</internalNodes>
          <leafValues>
            -5.7640528678894043e-01 3.7827631831169128e-01</leafValues></_>
        <_>
          <internalNodes>
            0 -1 29 -5.7705197832547128e-05</internalNodes>
          <leafValues>
            -7.8345096111297607e-01 2.3130951821804047e-01</leafValues></_>
        <_>
          <internalNodes>
            0 -1 47 -3.0669521540403366e-02</internalNodes>
          <leafValues>
            -8.5206919908523560e-01 1.5421602129936218e-01</leafValues></_>
        <_>
          <internalNodes>
            0 -1 44 -8.6867134086787701e-05</internalNodes>
          <leafValues>
            1.5571448206901550e-01 -9.2493444681167603e-01</leafValues></_>
        <_>
          <internalNodes>
            0 -1 93 5.3936876356601715e-03</internalNodes>
          <leafValues>
            -2.8181761503219604e-01 6.5772682428359985e-01</leafValues></_>
        <_>
          <internalNodes>
            0 -1 142 -1.7130283595179208e-05</internalNodes>
          <leafValues>
            2.3256669938564301e-01 -7.9583418369293213e-01</leafValues></_></weakClassifiers></_>
    <!-- stage 12 -->
    <_>
      <maxWeakCount>10</maxWeakCount>
      <stageThreshold>-4.4684228301048279e-01</stageThreshold>
      <weakClassifiers>
        <_>
          <internalNodes>
            0 -1 146 8.5332663729786873e-04</internalNodes>
          <leafValues>
            -5.6056338548660278e-01 7.4050635099411011e-01</leafValues></_>
        <_>
          <internalNodes>
            0 -1 59 3.4343223087489605e-03</internalNodes>
          <leafValues>
            -4.5969006419181824e-01 5.6029188632965088e-01</leafValues></_>
        <_>
          <internalNodes>
            0 -1 117 -1.7660433513810858e-05</internalNodes>
          <leafValues>
            2.5135582685470581e-01 -8.5234534740447998e-01</leafValues></_>
        <_>
          <internalNodes>
            0 -1 38 -1.4165773987770081e-02</internalNodes>
          <leafValues>
            6.3805180788040161e-01 -3.0845719575881958e-01</leafValues></_>
        <_>
          <internalNodes>
            0 -1 79 -4.5459571992978454e-04</internalNodes>
          <leafValues>
            -8.0320739746093750e-01 2.1094194054603577e-01</leafValues></_>
        <_>
          <internalNodes>
            0 -1 110 -3.9784451946616173e-03</internalNodes>
          <leafValues>
            -7.1184587478637695e-01 1.8951445817947388e-01</leafValues></_>
        <_>
          <internalNodes>
            0 -1 140 -6.5177823416888714e-03</internalNodes>
          <leafValues>
            -7.6873850822448730e-01 2.1740217506885529e-01</leafValues></_>
        <_>
          <internalNodes>
            0 -1 41 2.5721979909576476e-04</internalNodes>
          <leafValues>
            2.2546567022800446e-01 -6.3018411397933960e-01</leafValues></_>
        <_>
          <internalNodes>
            0 -1 5 1.0456526279449463e-01</internalNodes>
          <leafValues>
            -4.3648383021354675e-01 4.0349486470222473e-01</leafValues></_>
        <_>
          <internalNodes>
            0 -1 0 4.9363270401954651e-02</internalNodes>
          <leafValues>
            2.3934322595596313e-01 -9.1355365514755249e-01</leafValues></_></weakClassifiers></_>
    <!-- stage 13 -->
    <_>
      <maxWeakCount>12</maxWeakCount>
      <stageThreshold>-8.0659306049346924e-01</stageThreshold>
      <weakClassifiers>
        <_>
          <internalNodes>
            0 -1 21 1.9629360176622868e-03</internalNodes>
          <leafValues>
            -3.0214425921440125e-01 7.8250861167907715e-01</leafValues></_>
        <_>
          <internalNodes>
            0 -1 119 -1.7130283595179208e-05</internalNodes>
          <leafValues>
            4.5803421735763550e-01 -6.2006813287734985e-01</leafValues></_>
        <_>
          <internalNodes>
            0 -1 84 9.3942917883396149e-03</internalNodes>
          <leafValues>
            -4.3894997239112854e-01 5.1314395666122437e-01</leafValues></_>
        <_>
          <internalNodes>
            0 -1 73 -1.7660433513810858e-05</internalNodes>
          <leafValues>
            2.2471445798873901e-01 -8.0155390501022339e-01</leafValues></_>
        <_>
          <internalNodes>
            0 -1 111 1.6861287804204039e-05</internalNodes>
          <leafValues>
            -7.2388797998428345e-01 1.9975268840789795e-01</leafValues></_>
        <_>
          <internalNodes>
            0 -1 70 1.8551526591181755e-03</internalNodes>
          <leafValues>
            2.0594160258769989e-01 -7.8533899784088135e-01</leafValues></_>
        <_>
          <internalNodes>
            0 -1 87 1.3322857022285461e-01</internalNodes>
          <leafValues>
            -2.1071468293666840e-01 8.1251078844070435e-01</leafValues></_>
        <_>
          <internalNodes>
            0 -1 149 4.3994057923555374e-03</internalNodes>
          <leafValues>
            -2.2735099494457245e-01 7.2939801216125488e-01</leafValues></_>
        <_>
          <internalNodes>
            0 -1 33 8.6929444223642349e-03</internalNodes>
          <leafValues>
            -2.3245735466480255e-01 5.6864213943481445e-01</leafValues></_>
        <_>
          <internalNodes>
            0 -1 52 1.3627027510665357e-04</internalNodes>
          <leafValues>
            1.7544874548912048e-01 -9.8009157180786133e-01</leafValues></_>
        <_>
          <internalNodes>
            0 -1 8 3.7469156086444855e-02</internalNodes>
          <leafValues>
            1.3705778121948242e-01 -8.4657996892929077e-01</leafValues></_>
        <_>
          <internalNodes>
            0 -1 118 -7.0009222254157066e-03</internalNodes>
          <leafValues>
            -7.2053533792495728e-01 1.8259231746196747e-01</leafValues></_></weakClassifiers></_>
    <!-- stage 14 -->
    <_>
      <maxWeakCount>13</maxWeakCount>
      <stageThreshold>-7.4115681648254395e-01</stageThreshold>
      <weakClassifiers>
        <_>
          <internalNodes>
            0 -1 32 -9.4617600552737713e-04</internalNodes>
          <leafValues>
            7.4764806032180786e-01 -3.2882884144783020e-01</leafValues></_>
        <_>
          <internalNodes>
            0 -1 91 6.9651436060667038e-03</internalNodes>
          <leafValues>
            -4.6207892894744873e-01 4.8773443698883057e-01</leafValues></_>
        <_>
          <internalNodes>
            0 -1 24 1.0499185882508755e-03</internalNodes>
          <leafValues>
            -3.0714017152786255e-01 6.3800889253616333e-01</leafValues></_>
        <_>
          <internalNodes>
            0 -1 112 -1.7480723909102380e-04</internalNodes>
          <leafValues>
            -7.1262836456298828e-01 2.8623393177986145e-01</leafValues></_>
        <_>
          <internalNodes>
            0 -1 106 -6.9778715260326862e-04</internalNodes>
          <leafValues>
            3.0263498425483704e-01 -5.3466671705245972e-01</leafValues></_>
        <_>
          <internalNodes>
            0 -1 76 3.8469970604637638e-05</internalNodes>
          <leafValues>
            2.0933450758457184e-01 -7.5295478105545044e-01</leafValues></_>
        <_>
          <internalNodes>
            0 -1 147 -6.1212165746837854e-05</internalNodes>
          <leafValues>
            9.7644552588462830e-02 -8.2840812206268311e-01</leafValues></_>
        <_>
          <internalNodes>
            0 -1 104 1.8809641915140674e-05</internalNodes>
          <leafValues>
            1.2278679758310318e-01 -8.7370866537094116e-01</leafValues></_>
        <_>
          <internalNodes>
            0 -1 103 6.9445534609258175e-04</internalNodes>
          <leafValues>
            2.0801907777786255e-01 -6.2198168039321899e-01</leafValues></_>
        <_>
          <internalNodes>
            0 -1 17 -3.2067131251096725e-02</internalNodes>
          <leafValues>
            -8.3647227287292480e-01 1.7084366083145142e-01</leafValues></_>
        <_>
          <internalNodes>
            0 -1 94 4.2241724440827966e-04</internalNodes>
          <leafValues>
            -7.8963905572891235e-01 1.3394206762313843e-01</leafValues></_>
        <_>
          <internalNodes>
            0 -1 69 -1.7644109902903438e-03</internalNodes>
          <leafValues>
            -8.9882683753967285e-01 1.4960092306137085e-01</leafValues></_>
        <_>
          <internalNodes>
            0 -1 138 -2.7866261079907417e-03</internalNodes>
          <leafValues>
            4.1046530008316040e-01 -3.3184358477592468e-01</leafValues></_></weakClassifiers></_>
    <!-- stage 15 -->
    <_>
      <maxWeakCount>12</maxWeakCount>
      <stageThreshold>-7.2921460866928101e-01</stageThreshold>
      <weakClassifiers>
        <_>
          <internalNodes>
            0 -1 30 -1.8964548362419009e-03</internalNodes>
          <leafValues>
            7.0267492532730103e-01 -5.2442997694015503e-01</leafValues></_>
        <_>
          <internalNodes>
            0 -1 129 7.0227589458227158e-03</internalNodes>
          <leafValues>
            -3.4670934081077576e-01 5.5714553594589233e-01</leafValues></_>
        <_>
          <internalNodes>
            0 -1 15 -9.9381376057863235e-03</internalNodes>
          <leafValues>
            6.3404369354248047e-01 -3.1449615955352783e-01</leafValues></_>
        <_>
          <internalNodes>
            0 -1 109 8.9318415848538280e-04</internalNodes>
          <leafValues>
            2.5341549515724182e-01 -8.5626924037933350e-01</leafValues></_>
        <_>
          <internalNodes>
            0 -1 99 -1.7443982869735919e-05</internalNodes>
          <leafValues>
            1.7717686295509338e-01 -8.5465878248214722e-01</leafValues></_>
        <_>
          <internalNodes>
            0 -1 107 2.2227549925446510e-03</internalNodes>
          <leafValues>
            2.1876017749309540e-01 -7.4180769920349121e-01</leafValues></_>
        <_>
          <internalNodes>
            0 -1 20 9.3564303824678063e-05</internalNodes>
          <leafValues>
            -5.7120895385742188e-01 2.6577913761138916e-01</leafValues></_>
        <_>
          <internalNodes>
            0 -1 96 1.9578516366891563e-04</internalNodes>
          <leafValues>
            1.6385185718536377e-01 -8.1540387868881226e-01</leafValues></_>
        <_>
          <internalNodes>
            0 -1 64 6.4421771094202995e-03</internalNodes>
          <leafValues>
            -3.2722374796867371e-01 5.1517188549041748e-01</leafValues></_>
        <_>
          <internalNodes>
            0 -1 137 -1.7368800472468138e-03</internalNodes>
          <leafValues>
            -9.0185981988906860e-01 2.0432625710964203e-01</leafValues></_>
        <_>
          <internalNodes>
            0 -1 120 -6.4589995890855789e-03</internalNodes>
          <leafValues>
            6.1751258373260498e-01 -2.7056646347045898e-01</leafValues></_>
        <_>
          <internalNodes>
            0 -1 4 2.8469097614288330e-01</internalNodes>
          <leafValues>
            -1.7238578200340271e-01 8.9354854822158813e-01</leafValues></_></weakClassifiers></_>
    <!-- stage 16 -->
    <_>
      <maxWeakCount>11</maxWeakCount>
      <stageThreshold>-8.5725057125091553e-01</stageThreshold>
      <weakClassifiers>
        <_>
          <internalNodes>
            0 -1 58 2.1751923486590385e-03</internalNodes>
          <leafValues>
            -7.8260868787765503e-02 8.0653429031372070e-01</leafValues></_>
        <_>
          <internalNodes>
            0 -1 145 -2.8182570822536945e-03</internalNodes>
          <leafValues>
            6.2737613916397095e-01 -2.6913228631019592e-01</leafValues></_>
        <_>
          <internalNodes>
            0 -1 34 2.6500290259718895e-03</internalNodes>
          <leafValues>
            2.6902669668197632e-01 -8.8708436489105225e-01</leafValues></_>
        <_>
          <internalNodes>
            0 -1 2 1.6546511324122548e-03</internalNodes>
          <leafValues>
            -3.1464862823486328e-01 7.0323634147644043e-01</leafValues></_>
        <_>
          <internalNodes>
            0 -1 116 1.2962123751640320e-01</internalNodes>
          <leafValues>
            -2.5958421826362610e-01 8.1509548425674438e-01</leafValues></_>
        <_>
          <internalNodes>
            0 -1 26 -1.2657095678150654e-02</internalNodes>
          <leafValues>
            4.9765899777412415e-01 -3.6347490549087524e-01</leafValues></_>
        <_>
          <internalNodes>
            0 -1 83 2.8039044700562954e-03</internalNodes>
          <leafValues>
            2.7414193749427795e-01 -7.1706891059875488e-01</leafValues></_>
        <_>
          <internalNodes>
            0 -1 139 4.9358587712049484e-03</internalNodes>
          <leafValues>
            -2.3546525835990906e-01 8.1769061088562012e-01</leafValues></_>
        <_>
          <internalNodes>
            0 -1 108 -2.4816259741783142e-02</internalNodes>
          <leafValues>
            4.0694791078567505e-01 -5.4762345552444458e-01</leafValues></_>
        <_>
          <internalNodes>
            0 -1 43 -4.4666179746855050e-05</internalNodes>
          <leafValues>
            -7.6327484846115112e-01 2.4268384277820587e-01</leafValues></_>
        <_>
          <internalNodes>
            0 -1 72 3.3184431958943605e-04</internalNodes>
          <leafValues>
            3.9300507307052612e-01 -4.6078762412071228e-01</leafValues></_></weakClassifiers></_>
    <!-- stage 17 -->
    <_>
      <maxWeakCount>7</maxWeakCount>
      <stageThreshold>-3.8747572898864746e-01</stageThreshold>
      <weakClassifiers>
        <_>
          <internalNodes>
            0 -1 99 -5.2093295380473137e-04</internalNodes>
          <leafValues>
            7.2661119699478149e-01 -5.9021407365798950e-01</leafValues></_>
        <_>
          <internalNodes>
            0 -1 122 -1.0506216436624527e-02</internalNodes>
          <leafValues>
            8.9726847410202026e-01 -2.8911361098289490e-01</leafValues></_>
        <_>
          <internalNodes>
            0 -1 12 1.7440084775444120e-05</internalNodes>
          <leafValues>
            6.8965131044387817e-01 -3.9773339033126831e-01</leafValues></_>
        <_>
          <internalNodes>
            0 -1 11 4.8686748743057251e-01</internalNodes>
          <leafValues>
            -3.6444675922393799e-01 7.4155586957931519e-01</leafValues></_>
        <_>
          <internalNodes>
            0 -1 81 -3.6849691532552242e-03</internalNodes>
          <leafValues>
            8.4198909997940063e-01 -3.6622077226638794e-01</leafValues></_>
        <_>
          <internalNodes>
            0 -1 121 1.7851013690233231e-03</internalNodes>
          <leafValues>
            -2.5844314694404602e-01 8.3398443460464478e-01</leafValues></_>
        <_>
          <internalNodes>
            0 -1 105 -1.3283083681017160e-03</internalNodes>
          <leafValues>
            7.6771283149719238e-01 -3.0111628770828247e-01</leafValues></_></weakClassifiers></_>
    <!-- stage 18 -->
    <_>
      <maxWeakCount>4</maxWeakCount>
      <stageThreshold>6.9071881473064423e-02</stageThreshold>
      <weakClassifiers>
        <_>
          <internalNodes>
            0 -1 143 4.2932843789458275e-03</internalNodes>
          <leafValues>
            8.0280172824859619e-01 -7.2151899337768555e-01</leafValues></_>
        <_>
          <internalNodes>
            0 -1 51 2.6402496732771397e-03</internalNodes>
          <leafValues>
            -5.5938702821731567e-01 8.0782926082611084e-01</leafValues></_>
        <_>
          <internalNodes>
            0 -1 37 1.4855860499665141e-03</internalNodes>
          <leafValues>
            -6.0670983791351318e-01 7.5767153501510620e-01</leafValues></_>
        <_>
          <internalNodes>
            0 -1 9 4.8139095306396484e-02</internalNodes>
          <leafValues>
            6.3671422004699707e-01 -7.7490991353988647e-01</leafValues></_></weakClassifiers></_>
    <!-- stage 19 -->
    <_>
      <maxWeakCount>2</maxWeakCount>
      <stageThreshold>2.1196581423282623e-01</stageThreshold>
      <weakClassifiers>
        <_>
          <internalNodes>
            0 -1 127 -2.3400320787914097e-04</internalNodes>
          <leafValues>
            1. -7.8803420066833496e-01</leafValues></_>
        <_>
          <internalNodes>
            0 -1 7 -2.1864071488380432e-02</internalNodes>
          <leafValues>
            -5.2753722667694092e-01 1.</leafValues></_></weakClassifiers></_></stages>
  <features>
    <_>
      <rects>
        <_>
          0 0 12 5 -1.</_>
        <_>
          3 0 6 5 2.</_></rects>
      <tilted>0</tilted></_>
    <_>
      <rects>
        <_>
          0 1 18 12 -1.</_>
        <_>
          6 5 6 4 9.</_></rects>
      <tilted>0</tilted></_>
    <_>
      <rects>
        <_>
          0 3 3 3 -1.</_>
        <_>
          1 3 1 3 3.</_></rects>
      <tilted>0</tilted></_>
    <_>
      <rects>
        <_>
          0 5 20 6 -1.</_>
        <_>
          5 5 10 6 2.</_></rects>
      <tilted>0</tilted></_>
    <_>
      <rects>
        <_>
          0 7 18 4 -1.</_>
        <_>
          6 7 6 4 3.</_></rects>
      <tilted>0</tilted></_>
    <_>
      <rects>
        <_>
          0 8 20 3 -1.</_>
        <_>
          5 8 10 3 2.</_></rects>
      <tilted>0</tilted></_>
    <_>
      <rects>
        <_>
          0 9 18 2 -1.</_>
        <_>
          6 9 6 2 3.</_></rects>
      <tilted>0</tilted></_>
    <_>
      <rects>
        <_>
          0 16 20 1 -1.</_>
        <_>
          10 16 10 1 2.</_></rects>
      <tilted>0</tilted></_>
    <_>
      <rects>
        <_>
          1 1 12 3 -1.</_>
        <_>
          7 1 6 3 2.</_></rects>
      <tilted>0</tilted></_>
    <_>
      <rects>
        <_>
          1 1 12 4 -1.</_>
        <_>
          7 1 6 4 2.</_></rects>
      <tilted>0</tilted></_>
    <_>
      <rects>
        <_>
          1 2 3 4 -1.</_>
        <_>
          2 2 1 4 3.</_></rects>
      <tilted>0</tilted></_>
    <_>
      <rects>
        <_>
          1 2 18 18 -1.</_>
        <_>
          7 2 6 18 3.</_></rects>
      <tilted>0</tilted></_>
    <_>
      <rects>
        <_>
          1 3 2 1 -1.</_>
        <_>
          2 3 1 1 2.</_></rects>
      <tilted>0</tilted></_>
    <_>
      <rects>
        <_>
          1 5 16 8 -1.</_>
        <_>
          5 5 8 8 2.</_></rects>
      <tilted>0</tilted></_>
    <_>
      <rects>
        <_>
          2 1 15 15 -1.</_>
        <_>
          7 6 5 5 9.</_></rects>
      <tilted>0</tilted></_>
    <_>
      <rects>
        <_>
          2 1 6 3 -1.</_>
        <_>
          2 2 6 1 3.</_></rects>
      <tilted>0</tilted></_>
    <_>
      <rects>
        <_>
          2 1 13 3 -1.</_>
        <_>
          2 2 13 1 3.</_></rects>
      <tilted>0</tilted></_>
    <_>
      <rects>
        <_>
          2 5 12 1 -1.</_>
        <_>
          2 5 6 1 2.</_></rects>
      <tilted>1</tilted></_>
    <_>
      <rects>
        <_>
          3 0 2 6 -1.</_>
        <_>
          3 0 1 3 2.</_>
        <_>
          4 3 1 3 2.</_></rects>
      <tilted>0</tilted></_>
    <_>
      <rects>
        <_>
          3 2 11 4 -1.</_>
        <_>
          3 3 11 2 2.</_></rects>
      <tilted>0</tilted></_>
    <_>
      <rects>
        <_>
          3 3 3 3 -1.</_>
        <_>
          4 3 1 3 3.</_></rects>
      <tilted>0</tilted></_>
    <_>
      <rects>
        <_>
          3 3 4 3 -1.</_>
        <_>
          4 3 2 3 2.</_></rects>
      <tilted>0</tilted></_>
    <_>
      <rects>
        <_>
          3 5 4 3 -1.</_>
        <_>
          5 5 2 3 2.</_></rects>
      <tilted>0</tilted></_>
    <_>
      <rects>
        <_>
          3 5 4 2 -1.</_>
        <_>
          3 5 4 1 2.</_></rects>
      <tilted>1</tilted></_>
    <_>
      <rects>
        <_>
          3 7 2 4 -1.</_>
        <_>
          3 7 1 2 2.</_>
        <_>
          4 9 1 2 2.</_></rects>
      <tilted>0</tilted></_>
    <_>
      <rects>
        <_>
          3 10 12 3 -1.</_>
        <_>
          7 11 4 1 9.</_></rects>
      <tilted>0</tilted></_>
    <_>
      <rects>
        <_>
          4 1 12 3 -1.</_>
        <_>
          4 2 12 1 3.</_></rects>
      <tilted>0</tilted></_>
    <_>
      <rects>
        <_>
          4 2 8 2 -1.</_>
        <_>
          6 2 4 2 2.</_></rects>
      <tilted>0</tilted></_>
    <_>
      <rects>
        <_>
          4 4 8 6 -1.</_>
        <_>
          4 4 4 3 2.</_>
        <_>
          8 7 4 3 2.</_></rects>
      <tilted>0</tilted></_>
    <_>
      <rects>
        <_>
          4 5 8 2 -1.</_>
        <_>
          4 5 4 1 2.</_>
        <_>
          8 6 4 1 2.</_></rects>
      <tilted>0</tilted></_>
    <_>
      <rects>
        <_>
          4 5 5 4 -1.</_>
        <_>
          4 7 5 2 2.</_></rects>
      <tilted>0</tilted></_>
    <_>
      <rects>
        <_>
          4 5 6 2 -1.</_>
        <_>
          4 6 6 1 2.</_></rects>
      <tilted>0</tilted></_>
    <_>
      <rects>
        <_>
          4 6 3 2 -1.</_>
        <_>
          4 7 3 1 2.</_></rects>
      <tilted>0</tilted></_>
    <_>
      <rects>
        <_>
          5 0 13 3 -1.</_>
        <_>
          5 1 13 1 3.</_></rects>
      <tilted>0</tilted></_>
    <_>
      <rects>
        <_>
          5 2 4 3 -1.</_>
        <_>
          6 2 2 3 2.</_></rects>
      <tilted>0</tilted></_>
    <_>
      <rects>
        <_>
          5 2 6 3 -1.</_>
        <_>
          7 2 2 3 3.</_></rects>
      <tilted>0</tilted></_>
    <_>
      <rects>
        <_>
          5 2 4 6 -1.</_>
        <_>
          5 4 4 2 3.</_></rects>
      <tilted>0</tilted></_>
    <_>
      <rects>
        <_>
          5 3 3 7 -1.</_>
        <_>
          6 3 1 7 3.</_></rects>
      <tilted>0</tilted></_>
    <_>
      <rects>
        <_>
          5 4 2 3 -1.</_>
        <_>
          4 5 2 1 3.</_></rects>
      <tilted>1</tilted></_>
    <_>
      <rects>
        <_>
          5 4 10 3 -1.</_>
        <_>
          10 4 5 3 2.</_></rects>
      <tilted>0</tilted></_>
    <_>
      <rects>
        <_>
          5 5 4 3 -1.</_>
        <_>
          4 6 4 1 3.</_></rects>
      <tilted>1</tilted></_>
    <_>
      <rects>
        <_>
          5 5 8 2 -1.</_>
        <_>
          5 6 8 1 2.</_></rects>
      <tilted>0</tilted></_>
    <_>
      <rects>
        <_>
          5 6 2 4 -1.</_>
        <_>
          5 8 2 2 2.</_></rects>
      <tilted>0</tilted></_>
    <_>
      <rects>
        <_>
          5 6 6 2 -1.</_>
        <_>
          5 6 3 1 2.</_>
        <_>
          8 7 3 1 2.</_></rects>
      <tilted>0</tilted></_>
    <_>
      <rects>
        <_>
          5 6 5 4 -1.</_>
        <_>
          5 8 5 2 2.</_></rects>
      <tilted>0</tilted></_>
    <_>
      <rects>
        <_>
          5 6 8 2 -1.</_>
        <_>
          5 7 8 1 2.</_></rects>
      <tilted>0</tilted></_>
    <_>
      <rects>
        <_>
          5 7 6 4 -1.</_>
        <_>
          5 7 3 2 2.</_>
        <_>
          8 9 3 2 2.</_></rects>
      <tilted>0</tilted></_>
    <_>
      <rects>
        <_>
          5 7 8 2 -1.</_>
        <_>
          5 7 4 2 2.</_></rects>
      <tilted>1</tilted></_>
    <_>
      <rects>
        <_>
          5 7 5 2 -1.</_>
        <_>
          5 8 5 1 2.</_></rects>
      <tilted>0</tilted></_>
    <_>
      <rects>
        <_>
          5 8 2 4 -1.</_>
        <_>
          5 8 1 2 2.</_>
        <_>
          6 10 1 2 2.</_></rects>
      <tilted>0</tilted></_>
    <_>
      <rects>
        <_>
          5 8 8 5 -1.</_>
        <_>
          7 8 4 5 2.</_></rects>
      <tilted>0</tilted></_>
    <_>
      <rects>
        <_>
          6 1 4 3 -1.</_>
        <_>
          7 2 2 3 2.</_></rects>
      <tilted>1</tilted></_>
    <_>
      <rects>
        <_>
          6 4 2 2 -1.</_>
        <_>
          6 4 1 2 2.</_></rects>
      <tilted>1</tilted></_>
    <_>
      <rects>
        <_>
          6 5 4 4 -1.</_>
        <_>
          6 7 4 2 2.</_></rects>
      <tilted>0</tilted></_>
    <_>
      <rects>
        <_>
          6 5 6 6 -1.</_>
        <_>
          6 7 6 2 3.</_></rects>
      <tilted>0</tilted></_>
    <_>
      <rects>
        <_>
          6 5 7 4 -1.</_>
        <_>
          6 6 7 2 2.</_></rects>
      <tilted>0</tilted></_>
    <_>
      <rects>
        <_>
          6 6 7 4 -1.</_>
        <_>
          6 8 7 2 2.</_></rects>
      <tilted>0</tilted></_>
    <_>
      <rects>
        <_>
          6 7 2 4 -1.</_>
        <_>
          6 8 2 2 2.</_></rects>
      <tilted>0</tilted></_>
    <_>
      <rects>
        <_>
          6 8 3 3 -1.</_>
        <_>
          7 8 1 3 3.</_></rects>
      <tilted>0</tilted></_>
    <_>
      <rects>
        <_>
          6 8 4 4 -1.</_>
        <_>
          6 8 2 2 2.</_>
        <_>
          8 10 2 2 2.</_></rects>
      <tilted>0</tilted></_>
    <_>
      <rects>
        <_>
          6 9 6 2 -1.</_>
        <_>
          6 10 6 1 2.</_></rects>
      <tilted>0</tilted></_>
    <_>
      <rects>
        <_>
          6 10 2 4 -1.</_>
        <_>
          6 10 1 2 2.</_>
        <_>
          7 12 1 2 2.</_></rects>
      <tilted>0</tilted></_>
    <_>
      <rects>
        <_>
          6 10 3 2 -1.</_>
        <_>
          6 11 3 1 2.</_></rects>
      <tilted>0</tilted></_>
    <_>
      <rects>
        <_>
          7 0 9 3 -1.</_>
        <_>
          7 1 9 1 3.</_></rects>
      <tilted>0</tilted></_>
    <_>
      <rects>
        <_>
          7 0 13 3 -1.</_>
        <_>
          7 1 13 1 3.</_></rects>
      <tilted>0</tilted></_>
    <_>
      <rects>
        <_>
          7 2 5 2 -1.</_>
        <_>
          7 2 5 1 2.</_></rects>
      <tilted>1</tilted></_>
    <_>
      <rects>
        <_>
          7 2 7 6 -1.</_>
        <_>
          7 4 7 2 3.</_></rects>
      <tilted>0</tilted></_>
    <_>
      <rects>
        <_>
          7 3 4 4 -1.</_>
        <_>
          8 3 2 4 2.</_></rects>
      <tilted>0</tilted></_>
    <_>
      <rects>
        <_>
          7 3 3 10 -1.</_>
        <_>
          8 3 1 10 3.</_></rects>
      <tilted>0</tilted></_>
    <_>
      <rects>
        <_>
          7 3 6 1 -1.</_>
        <_>
          9 3 2 1 3.</_></rects>
      <tilted>0</tilted></_>
    <_>
      <rects>
        <_>
          7 3 6 2 -1.</_>
        <_>
          9 3 2 2 3.</_></rects>
      <tilted>0</tilted></_>
    <_>
      <rects>
        <_>
          7 4 4 3 -1.</_>
        <_>
          7 4 2 3 2.</_></rects>
      <tilted>1</tilted></_>
    <_>
      <rects>
        <_>
          7 4 5 2 -1.</_>
        <_>
          7 4 5 1 2.</_></rects>
      <tilted>1</tilted></_>
    <_>
      <rects>
        <_>
          7 5 8 2 -1.</_>
        <_>
          7 5 4 1 2.</_>
        <_>
          11 6 4 1 2.</_></rects>
      <tilted>0</tilted></_>
    <_>
      <rects>
        <_>
          7 5 6 6 -1.</_>
        <_>
          7 8 6 3 2.</_></rects>
      <tilted>0</tilted></_>
    <_>
      <rects>
        <_>
          7 6 4 3 -1.</_>
        <_>
          9 6 2 3 2.</_></rects>
      <tilted>0</tilted></_>
    <_>
      <rects>
        <_>
          7 6 6 2 -1.</_>
        <_>
          7 6 3 1 2.</_>
        <_>
          10 7 3 1 2.</_></rects>
      <tilted>0</tilted></_>
    <_>
      <rects>
        <_>
          7 6 4 8 -1.</_>
        <_>
          7 8 4 4 2.</_></rects>
      <tilted>0</tilted></_>
    <_>
      <rects>
        <_>
          7 7 1 6 -1.</_>
        <_>
          7 9 1 2 3.</_></rects>
      <tilted>0</tilted></_>
    <_>
      <rects>
        <_>
          7 7 3 3 -1.</_>
        <_>
          7 8 3 1 3.</_></rects>
      <tilted>0</tilted></_>
    <_>
      <rects>
        <_>
          7 10 2 4 -1.</_>
        <_>
          8 10 1 4 2.</_></rects>
      <tilted>0</tilted></_>
    <_>
      <rects>
        <_>
          8 0 6 2 -1.</_>
        <_>
          8 1 6 1 2.</_></rects>
      <tilted>0</tilted></_>
    <_>
      <rects>
        <_>
          8 1 8 3 -1.</_>
        <_>
          10 3 4 3 2.</_></rects>
      <tilted>1</tilted></_>
    <_>
      <rects>
        <_>
          8 2 5 12 -1.</_>
        <_>
          8 8 5 6 2.</_></rects>
      <tilted>0</tilted></_>
    <_>
      <rects>
        <_>
          8 2 7 4 -1.</_>
        <_>
          8 3 7 2 2.</_></rects>
      <tilted>0</tilted></_>
    <_>
      <rects>
        <_>
          8 3 3 6 -1.</_>
        <_>
          9 5 1 2 9.</_></rects>
      <tilted>0</tilted></_>
    <_>
      <rects>
        <_>
          8 3 6 8 -1.</_>
        <_>
          8 3 3 4 2.</_>
        <_>
          11 7 3 4 2.</_></rects>
      <tilted>0</tilted></_>
    <_>
      <rects>
        <_>
          8 4 10 2 -1.</_>
        <_>
          8 4 5 2 2.</_></rects>
      <tilted>1</tilted></_>
    <_>
      <rects>
        <_>
          8 5 2 4 -1.</_>
        <_>
          8 7 2 2 2.</_></rects>
      <tilted>0</tilted></_>
    <_>
      <rects>
        <_>
          8 6 6 2 -1.</_>
        <_>
          8 7 6 1 2.</_></rects>
      <tilted>0</tilted></_>
    <_>
      <rects>
        <_>
          8 7 1 8 -1.</_>
        <_>
          8 9 1 4 2.</_></rects>
      <tilted>0</tilted></_>
    <_>
      <rects>
        <_>
          8 7 3 9 -1.</_>
        <_>
          8 10 3 3 3.</_></rects>
      <tilted>0</tilted></_>
    <_>
      <rects>
        <_>
          8 13 3 2 -1.</_>
        <_>
          8 14 3 1 2.</_></rects>
      <tilted>0</tilted></_>
    <_>
      <rects>
        <_>
          9 0 5 3 -1.</_>
        <_>
          9 1 5 1 3.</_></rects>
      <tilted>0</tilted></_>
    <_>
      <rects>
        <_>
          9 1 4 8 -1.</_>
        <_>
          9 5 4 4 2.</_></rects>
      <tilted>0</tilted></_>
    <_>
      <rects>
        <_>
          9 2 3 2 -1.</_>
        <_>
          10 3 1 2 3.</_></rects>
      <tilted>1</tilted></_>
    <_>
      <rects>
        <_>
          9 4 6 2 -1.</_>
        <_>
          9 4 3 1 2.</_>
        <_>
          12 5 3 1 2.</_></rects>
      <tilted>0</tilted></_>
    <_>
      <rects>
        <_>
          9 4 6 2 -1.</_>
        <_>
          9 5 6 1 2.</_></rects>
      <tilted>0</tilted></_>
    <_>
      <rects>
        <_>
          9 5 3 8 -1.</_>
        <_>
          9 7 3 4 2.</_></rects>
      <tilted>0</tilted></_>
    <_>
      <rects>
        <_>
          9 5 5 2 -1.</_>
        <_>
          9 5 5 1 2.</_></rects>
      <tilted>1</tilted></_>
    <_>
      <rects>
        <_>
          9 6 1 2 -1.</_>
        <_>
          9 6 1 1 2.</_></rects>
      <tilted>1</tilted></_>
    <_>
      <rects>
        <_>
          9 6 2 3 -1.</_>
        <_>
          9 6 1 3 2.</_></rects>
      <tilted>1</tilted></_>
    <_>
      <rects>
        <_>
          9 6 4 2 -1.</_>
        <_>
          9 6 4 1 2.</_></rects>
      <tilted>1</tilted></_>
    <_>
      <rects>
        <_>
          9 8 2 3 -1.</_>
        <_>
          9 8 1 3 2.</_></rects>
      <tilted>1</tilted></_>
    <_>
      <rects>
        <_>
          9 9 3 2 -1.</_>
        <_>
          9 10 3 1 2.</_></rects>
      <tilted>0</tilted></_>
    <_>
      <rects>
        <_>
          9 13 1 4 -1.</_>
        <_>
          9 14 1 2 2.</_></rects>
      <tilted>0</tilted></_>
    <_>
      <rects>
        <_>
          10 0 3 2 -1.</_>
        <_>
          11 1 1 2 3.</_></rects>
      <tilted>1</tilted></_>
    <_>
      <rects>
        <_>
          10 0 6 1 -1.</_>
        <_>
          10 0 3 1 2.</_></rects>
      <tilted>1</tilted></_>
    <_>
      <rects>
        <_>
          10 0 10 8 -1.</_>
        <_>
          10 0 5 4 2.</_>
        <_>
          15 4 5 4 2.</_></rects>
      <tilted>0</tilted></_>
    <_>
      <rects>
        <_>
          10 1 1 16 -1.</_>
        <_>
          10 9 1 8 2.</_></rects>
      <tilted>0</tilted></_>
    <_>
      <rects>
        <_>
          10 1 5 8 -1.</_>
        <_>
          10 5 5 4 2.</_></rects>
      <tilted>0</tilted></_>
    <_>
      <rects>
        <_>
          10 2 3 3 -1.</_>
        <_>
          11 3 1 3 3.</_></rects>
      <tilted>1</tilted></_>
    <_>
      <rects>
        <_>
          10 2 3 6 -1.</_>
        <_>
          11 3 1 6 3.</_></rects>
      <tilted>1</tilted></_>
    <_>
      <rects>
        <_>
          10 2 6 5 -1.</_>
        <_>
          13 2 3 5 2.</_></rects>
      <tilted>0</tilted></_>
    <_>
      <rects>
        <_>
          10 5 5 2 -1.</_>
        <_>
          10 6 5 1 2.</_></rects>
      <tilted>0</tilted></_>
    <_>
      <rects>
        <_>
          10 6 4 2 -1.</_>
        <_>
          10 7 4 1 2.</_></rects>
      <tilted>0</tilted></_>
    <_>
      <rects>
        <_>
          10 7 3 8 -1.</_>
        <_>
          10 7 3 4 2.</_></rects>
      <tilted>1</tilted></_>
    <_>
      <rects>
        <_>
          10 7 4 2 -1.</_>
        <_>
          10 8 4 1 2.</_></rects>
      <tilted>0</tilted></_>
    <_>
      <rects>
        <_>
          10 7 5 2 -1.</_>
        <_>
          10 7 5 1 2.</_></rects>
      <tilted>1</tilted></_>
    <_>
      <rects>
        <_>
          10 8 3 2 -1.</_>
        <_>
          10 8 3 1 2.</_></rects>
      <tilted>1</tilted></_>
    <_>
      <rects>
        <_>
          11 0 4 3 -1.</_>
        <_>
          11 1 4 1 3.</_></rects>
      <tilted>0</tilted></_>
    <_>
      <rects>
        <_>
          11 0 8 3 -1.</_>
        <_>
          11 1 8 1 3.</_></rects>
      <tilted>0</tilted></_>
    <_>
      <rects>
        <_>
          11 1 5 3 -1.</_>
        <_>
          11 2 5 1 3.</_></rects>
      <tilted>0</tilted></_>
    <_>
      <rects>
        <_>
          11 2 3 1 -1.</_>
        <_>
          12 2 1 1 3.</_></rects>
      <tilted>0</tilted></_>
    <_>
      <rects>
        <_>
          11 2 2 1 -1.</_>
        <_>
          11 2 1 1 2.</_></rects>
      <tilted>1</tilted></_>
    <_>
      <rects>
        <_>
          11 2 3 3 -1.</_>
        <_>
          10 3 3 1 3.</_></rects>
      <tilted>1</tilted></_>
    <_>
      <rects>
        <_>
          11 5 4 8 -1.</_>
        <_>
          11 5 2 4 2.</_>
        <_>
          13 9 2 4 2.</_></rects>
      <tilted>0</tilted></_>
    <_>
      <rects>
        <_>
          11 5 4 2 -1.</_>
        <_>
          11 6 4 1 2.</_></rects>
      <tilted>0</tilted></_>
    <_>
      <rects>
        <_>
          11 6 4 6 -1.</_>
        <_>
          11 6 4 3 2.</_></rects>
      <tilted>1</tilted></_>
    <_>
      <rects>
        <_>
          11 8 3 4 -1.</_>
        <_>
          12 9 1 4 3.</_></rects>
      <tilted>1</tilted></_>
    <_>
      <rects>
        <_>
          11 10 2 2 -1.</_>
        <_>
          11 10 2 1 2.</_></rects>
      <tilted>1</tilted></_>
    <_>
      <rects>
        <_>
          12 0 4 6 -1.</_>
        <_>
          12 0 2 3 2.</_>
        <_>
          14 3 2 3 2.</_></rects>
      <tilted>0</tilted></_>
    <_>
      <rects>
        <_>
          12 0 8 9 -1.</_>
        <_>
          14 2 4 9 2.</_></rects>
      <tilted>1</tilted></_>
    <_>
      <rects>
        <_>
          12 2 4 1 -1.</_>
        <_>
          13 3 2 1 2.</_></rects>
      <tilted>1</tilted></_>
    <_>
      <rects>
        <_>
          12 2 2 4 -1.</_>
        <_>
          12 2 1 4 2.</_></rects>
      <tilted>1</tilted></_>
    <_>
      <rects>
        <_>
          12 2 2 5 -1.</_>
        <_>
          12 2 1 5 2.</_></rects>
      <tilted>1</tilted></_>
    <_>
      <rects>
        <_>
          12 4 3 4 -1.</_>
        <_>
          12 4 3 2 2.</_></rects>
      <tilted>1</tilted></_>
    <_>
      <rects>
        <_>
          12 5 2 3 -1.</_>
        <_>
          11 6 2 1 3.</_></rects>
      <tilted>1</tilted></_>
    <_>
      <rects>
        <_>
          12 6 4 1 -1.</_>
        <_>
          13 7 2 1 2.</_></rects>
      <tilted>1</tilted></_>
    <_>
      <rects>
        <_>
          12 8 2 4 -1.</_>
        <_>
          12 8 1 2 2.</_>
        <_>
          13 10 1 2 2.</_></rects>
      <tilted>0</tilted></_>
    <_>
      <rects>
        <_>
          13 1 4 1 -1.</_>
        <_>
          13 1 2 1 2.</_></rects>
      <tilted>1</tilted></_>
    <_>
      <rects>
        <_>
          13 2 3 6 -1.</_>
        <_>
          11 4 3 2 3.</_></rects>
      <tilted>1</tilted></_>
    <_>
      <rects>
        <_>
          13 5 2 2 -1.</_>
        <_>
          13 5 2 1 2.</_></rects>
      <tilted>1</tilted></_>
    <_>
      <rects>
        <_>
          13 5 3 4 -1.</_>
        <_>
          12 6 3 2 2.</_></rects>
      <tilted>1</tilted></_>
    <_>
      <rects>
        <_>
          13 6 2 4 -1.</_>
        <_>
          13 6 2 2 2.</_></rects>
      <tilted>1</tilted></_>
    <_>
      <rects>
        <_>
          14 1 3 4 -1.</_>
        <_>
          15 1 1 4 3.</_></rects>
      <tilted>0</tilted></_>
    <_>
      <rects>
        <_>
          14 2 2 4 -1.</_>
        <_>
          13 3 2 2 2.</_></rects>
      <tilted>1</tilted></_>
    <_>
      <rects>
        <_>
          14 4 2 2 -1.</_>
        <_>
          14 4 2 1 2.</_></rects>
      <tilted>1</tilted></_>
    <_>
      <rects>
        <_>
          16 2 2 6 -1.</_>
        <_>
          16 2 1 3 2.</_>
        <_>
          17 5 1 3 2.</_></rects>
      <tilted>0</tilted></_>
    <_>
      <rects>
        <_>
          16 4 3 1 -1.</_>
        <_>
          17 5 1 1 3.</_></rects>
      <tilted>1</tilted></_></features></cascade>
</opencv_storage>
